tree
version=v4
num_class=1
num_tree_per_iteration=1
label_index=0
max_feature_idx=61
objective=regression
feature_names=Column_0 Column_1 Column_2 Column_3 Column_4 Column_5 Column_6 Column_7 Column_8 Column_9 Column_10 Column_11 Column_12 Column_13 Column_14 Column_15 Column_16 Column_17 Column_18 Column_19 Column_20 Column_21 Column_22 Column_23 Column_24 Column_25 Column_26 Column_27 Column_28 Column_29 Column_30 Column_31 Column_32 Column_33 Column_34 Column_35 Column_36 Column_37 Column_38 Column_39 Column_40 Column_41 Column_42 Column_43 Column_44 Column_45 Column_46 Column_47 Column_48 Column_49 Column_50 Column_51 Column_52 Column_53 Column_54 Column_55 Column_56 Column_57 Column_58 Column_59 Column_60 Column_61
feature_infos=[-3.4057420135730565:1.4383836384240678] [-3.574009363602825:1.8789420925124023] [-2.9122603962790681:1.8308783556315944] [-4.6908722369595903:2.0422237699121557] [-0.99857168001531427:4.5357610781703244] [-1.2285288610801741:2.3893084704087335] [-0.21099690619042114:9.9782069059933871] [-1.0899779200533837:5.7165748672058001] [-2.1756484581282036:2.1192166556658805] [-2.1500326679245658:2.7340624660068045] [-2.4127256334928373:6.0025418164297095] [0:1] [0:1] [0:1] none [0:1] [0:1] [0:1] [0:1] [0:1] [0:1] [0:1] [0:1] [0:1] [0:1] none none none [0:1] [0:1] none [0:1] none none none none [0:1] [0:1] [0:1] [0:1] none none none none [0:1] none [0:1] none none none none none none none none none none none none none [0:1] none
tree_sizes=2513 2710 2710 2719 2711 2702 2624 2727 2731 2734 2718 2734 2716 2714 2712 2726 2644 2713 2708 2648 2635 2560 2636

Tree=0
num_leaves=30
num_cat=0
split_feature=0 4 0 0 8 3 3 2 10 23 10 9 5 23 0 5 2 1 1 2 6 8 4 8 23 7 5 0 8
split_gain=9909.75 3255.56 2108.14 1251.31 1139.43 1094.01 1156.61 1029.31 741.987 696.214 676.85 603.89 1120.82 510.728 513.476 329.29 372.021 541.904 462.794 558.577 364.763 328.88 267.156 225.004 161.763 124.68 100.618 95.093 15.7414
threshold=1.0000000180025095e-35 -0.94072580018550123 0.98424685854933747 -1.3999712357929972 1.319751637721045 0.19199058283050022 0.52960683141759957 1.0162375756424185 0.8238091542601137 1.0000000180025095e-35 -0.53444591632095306 -0.53742717484583857 -0.64226705309130783 1.0000000180025095e-35 -0.41600821273108141 1.106501154926451 -0.12801115151343062 0.19473023404295056 0.46882038659900721 0.60891718564783071 -0.19712136441366673 0.74969832057777064 0.5439851154463613 -0.17721764225682227 1.0000000180025095e-35 0.070603599337647635 0.067049933116542462 -1.7784185523552725 -0.25600549909776243
decision_type=2 2 2 2 2 2 2 2 2 2 2 2 2 2 2 2 2 2 2 2 2 2 2 2 2 2 2 2 2
left_child=3 -2 4 25 8 -4 -7 -8 15 -9 21 12 -12 14 -13 16 17 -3 19 24 -17 26 -19 -20 -18 27 -5 28 -1
right_child=1 2 5 10 -6 6 7 9 -10 -11 11 13 -14 -15 -16 20 18 22 23 -21 -22 -23 -24 -25 -26 -27 -28 -29 -30
leaf_value=39.74909782990165 40.938228260246305 40.520836955250601 40.826568176116453 39.822875003698279 40.547975810074036 40.117477275932373 40.749588707147105 40.166178574498211 40.483211541674457 40.573321431889418 40.523010872861612 40.25863889228966 40.078533786188913 39.88717424592285 39.993398651617603 39.928083337148031 40.070940479082722 40.326416669140258 40.424750002138317 40.238339746850421 40.210750002920626 40.117250003032382 40.097022730647161 40.215583336196012 39.872250003032384 39.959967394568345 39.956750002950429 39.886641894800434 39.809750003814699
leaf_weight=23 23 23 22 32 31 22 31 21 26 21 23 36 37 33 37 21 21 30 20 39 25 20 22 36 20 23 25 37 20
leaf_count=23 23 23 22 32 31 22 31 21 26 21 23 36 37 33 37 21 21 30 20 39 25 20 22 36 20 23 25 37 20
internal_value=40.205 40.3586 40.3277 40.0034 40.2602 40.5089 40.4353 40.5311 40.2287 40.3698 40.0653 40.1222 40.2489 40.0504 40.1242 40.2029 40.2293 40.3188 40.18 40.1029 40.0817 39.9428 40.2294 40.2903 39.974 39.8574 39.8816 39.8279 39.7773
internal_weight=0 454 431 346 314 117 95 73 283 42 243 166 60 106 73 257 211 75 136 80 46 77 52 56 41 103 57 80 43
internal_count=800 454 431 346 314 117 95 73 283 42 243 166 60 106 73 257 211 75 136 80 46 77 52 56 41 103 57 80 43
is_linear=0
shrinkage=1


Tree=1
num_leaves=31
num_cat=0
split_feature=0 4 0 0 8 3 3 2 10 23 10 9 1 23 9 6 8 4 8 10 8 3 1 8 10 7 9 9 10 9
split_gain=8943.55 2938.14 1902.59 1129.31 1028.33 987.346 1043.84 928.953 669.643 628.333 610.857 545.01 921.427 460.932 483.478 336.756 308.092 385.836 553.11 536.334 296.815 242.472 277.557 218.132 251.555 112.524 90.0391 89.8293 69.1312 41.0098
threshold=1.0000000180025095e-35 -0.94072580018550123 0.98424685854933747 -1.3999712357929972 1.319751637721045 0.19199058283050022 0.52960683141759957 1.0162375756424185 0.8238091542601137 1.0000000180025095e-35 -0.53444591632095306 -0.53742717484583857 -0.40394036232948821 1.0000000180025095e-35 0.14567234680553737 -0.21085763302855742 -0.66848310255915611 1.6188518186669969 0.69871794262186793 -0.81160926555816637 0.74969832057777064 -0.2014636214374885 0.10817544902524844 -0.29308213761114615 -0.14737442237636486 0.070603599337647635 0.36084923487606679 0.82589853327987417 -0.97441705286307723 0.21962481092458602
decision_type=2 2 2 2 2 2 2 2 2 2 2 2 2 2 2 2 2 2 2 2 2 2 2 2 2 2 2 2 2 2
left_child=3 -2 4 25 8 -4 -7 -8 16 -9 20 12 -12 14 -13 -16 21 18 19 -18 28 -3 -23 -21 -25 27 -20 29 -5 -1
right_child=1 2 5 10 -6 6 7 9 -10 -11 11 13 -14 -15 15 -17 17 -19 26 23 -22 22 -24 24 -26 -27 -28 -29 -30 -31
leaf_value=-0.35271024332546141 0.6965668361876971 0.016776573206439164 0.59048975790766156 -0.24028831396413888 0.32582702252172657 -0.083146597207947218 0.51735928250897323 -0.036880361146870114 0.26430096253752711 0.34990534704355969 -0.21579575379463761 -0.27267430384050717 0.19080937667504738 -0.30193447416478936 -0.11823224651698883 0.13878141406178476 -0.097702732004902593 -0.13321077692611466 -0.16851574767380953 0.30324462166428567 -0.083362507019191984 -0.30008213374763731 -0.047878254856914285 0.03596347070792142 0.23460776905218761 -0.23278098473244391 -0.018483128212392331 -0.2665000131726265 -0.35252665388123955 -0.43612888868038474
leaf_weight=34 23 33 22 23 31 22 31 21 26 21 22 22 38 33 26 25 22 29 20 25 20 20 24 34 30 23 20 20 34 26
leaf_count=34 23 33 22 23 31 22 31 21 26 21 22 22 38 33 26 25 22 29 20 25 20 20 24 34 30 23 20 20 34 26
internal_value=0 0.145945 0.116562 -0.191501 0.0524361 0.28866 0.218762 0.309749 0.0224886 0.156512 -0.13269 -0.0786983 0.0417208 -0.14686 -0.0767581 0.00775484 -0.00197485 0.0338309 0.0659117 0.123357 -0.249088 -0.0856765 -0.162516 0.178001 0.129078 -0.330247 -0.0934994 -0.358269 -0.307237 -0.388858
internal_weight=0 454 431 346 314 117 95 73 283 42 243 166 60 106 73 51 257 180 151 111 77 77 44 89 64 103 40 80 57 60
internal_count=800 454 431 346 314 117 95 73 283 42 243 166 60 106 73 51 257 180 151 111 77 77 44 89 64 103 40 80 57 60
is_linear=0
shrinkage=0.05


Tree=2
num_leaves=31
num_cat=0
split_feature=0 4 0 0 5 8 10 7 7 9 10 5 5 6 9 24 1 5 4 8 10 3 3 5 1 1 3 7 0 8
split_gain=8071.56 2651.67 1717.09 1019.2 939.673 928.069 604.353 581.892 549.909 538.742 436.728 303.879 346.295 331.278 287.797 404.368 385.102 304.428 251.745 296.902 555.22 253.41 228.775 193.717 189.727 125.901 106.762 182.758 197.217 27.4008
threshold=1.0000000180025095e-35 -0.94072580018550123 0.98424685854933747 -1.3999712357929972 0.51791897488163896 1.319751637721045 0.8238091542601137 -0.73649752168122784 -0.74135507472439699 0.28996764772747868 -0.53317632489861222 1.106501154926451 -0.99673689806060317 -0.19712136441366673 -0.71636412299595975 1.0000000180025095e-35 -0.31738557731178607 -0.40457040345782608 1.6188518186669969 -0.66848310255915611 -0.53696201568522861 0.30773415983790658 -0.043749130722923378 0.65374563181505707 0.61307836162851082 0.46882038659900721 0.34397336286258989 -0.019074302997783066 -1.8541080156677274 0.31404781804551168
decision_type=2 2 2 2 2 2 2 2 2 2 2 2 2 2 2 2 2 2 2 2 2 2 2 2 2 2 2 2 2 2
left_child=3 -2 5 26 8 6 11 -5 -4 -10 23 12 25 -13 17 -16 -17 -12 19 22 24 -22 -14 29 -21 -3 27 28 -1 -9
right_child=1 2 4 7 -6 -7 -8 10 9 -11 14 13 18 -15 15 16 -18 -19 -20 20 21 -23 -24 -25 -26 -27 -28 -29 -30 -31
leaf_value=-0.43965545082092289 0.66173852267472644 -0.18752045712687754 0.40733274422585969 0.09278746536346498 0.56867990737611596 0.30953566585817649 0.25108590962795113 -0.33858053699135782 -0.017010173777816818 0.26143687107159119 0.14163095603386563 -0.26472214460372928 0.096352299912409345 0.0046580519676208496 -0.28329301182594568 0.061452039010052029 -0.18189729838757904 -0.12759560782994545 -0.075914938778926938 -0.10918101742863656 0.36104418432712554 0.13591758805513382 -0.12686917365839084 -0.13031623106111179 0.10138577143459215 -0.014186799488961697 -0.41432530482610064 -0.1607536452866736 -0.25685125386549368 -0.26302590698003769
leaf_weight=25 23 22 25 27 22 31 26 30 32 38 21 21 22 25 36 29 37 21 30 20 25 25 24 22 23 20 21 21 36 20
leaf_count=25 23 22 25 27 22 31 26 30 32 38 21 21 22 25 36 29 37 21 30 20 25 25 24 22 23 20 21 21 36 20
internal_value=0 0.138648 0.110734 -0.181925 0.274227 0.0498143 0.0213642 -0.126056 0.206038 0.134147 -0.153411 -0.00187611 0.0235097 -0.11832 -0.103138 -0.148496 -0.0749711 0.00701767 0.0554422 0.0837927 0.135186 0.248481 -0.0201111 -0.253957 0.00344773 -0.104981 -0.313735 -0.287974 -0.331771 -0.308359
internal_weight=0 454 431 346 117 314 283 243 95 70 216 257 211 46 144 102 66 42 169 139 93 50 46 72 43 42 103 82 61 50
internal_count=800 454 431 346 117 314 283 243 95 70 216 257 211 46 144 102 66 42 169 139 93 50 46 72 43 42 103 82 61 50
is_linear=0
shrinkage=0.05


Tree=3
num_leaves=31
num_cat=0
split_feature=0 4 0 0 1 7 8 1 10 7 24 10 5 5 2 1 1 5 7 9 9 5 24 1 5 24 1 3 7 0
split_gain=7284.58 2393.14 1549.67 919.828 878.639 1041.05 837.583 808.897 545.429 525.157 480.773 394.147 274.251 312.531 402.8 572.665 396.651 739.876 430.303 310.013 260.093 828.156 450.233 340.764 174.829 133.81 113.626 96.3526 164.939 177.989
threshold=1.0000000180025095e-35 -0.94072580018550123 0.98424685854933747 -1.3999712357929972 -0.093785716016055662 0.51151995248684823 1.319751637721045 0.95929750169931849 0.8238091542601137 -0.73649752168122784 1.0000000180025095e-35 -0.53317632489861222 1.106501154926451 -0.99673689806060317 -0.2941549948006969 0.39669139908425549 0.61307836162851082 -0.3951379967263387 0.53020284880672974 0.003442255542092897 -0.68723568763872411 -0.55926187385421888 1.0000000180025095e-35 -0.29574688105736052 0.65374563181505707 1.0000000180025095e-35 0.46882038659900721 0.34397336286258989 -0.019074302997783066 -1.8541080156677274
decision_type=2 2 2 2 2 2 2 2 2 2 2 2 2 2 2 2 2 2 2 2 2 2 2 2 2 2 2 2 2 2
left_child=3 -2 6 27 -4 7 8 10 12 -5 -6 24 13 26 15 -15 18 -18 25 -14 21 -13 -22 -24 -11 -16 -3 28 29 -1
right_child=1 2 4 9 5 -7 -8 -9 -10 11 -12 20 19 14 16 -17 17 -19 -20 -21 22 -23 23 -25 -26 -27 -28 -29 -30 -31
leaf_value=-0.41767268180847172 0.62865157749341893 -0.17814443382349882 0.55347556012815669 0.088148095569124937 0.54097023904323582 -0.096906537335851917 0.29405888876607345 0.051032304142912238 0.23853162148824106 -0.29294075328111652 0.22448788746481851 0.24241694305092099 0.0065615540444850925 0.33419571845577312 -0.23891771811246876 0.011037029993945156 0.34108407065272334 -0.063423563998479107 0.11719789430499078 -0.25402936878658477 -0.29828342832624916 -0.18208360685794445 0.058379437825803106 -0.17192549142572616 -0.12380042306401513 -0.07180844208468562 -0.013477459214627743 -0.39360904466538205 -0.15271597107251486 -0.24400868982904489
leaf_weight=25 23 22 21 27 28 23 31 24 26 50 21 20 25 26 25 29 20 26 20 21 32 27 29 36 22 23 20 21 21 36
leaf_count=25 23 22 21 27 28 23 31 24 26 50 21 20 25 26 25 29 20 26 20 21 32 27 29 36 22 23 20 21 21 36
internal_value=0 0.131716 0.105197 -0.172829 0.260516 0.196431 0.0473236 0.288852 0.020296 -0.119753 0.405335 -0.145741 -0.00178231 0.0223342 0.0526701 0.163803 -0.000946583 0.112449 -0.0776556 -0.112404 -0.0979813 -0.00144507 -0.144757 -0.0691741 -0.241259 -0.158845 -0.0997316 -0.298048 -0.273575 -0.315182
internal_weight=0 454 431 346 117 96 314 73 283 243 49 216 257 211 169 55 114 46 68 46 144 47 97 65 72 48 42 103 82 61
internal_count=800 454 431 346 117 96 314 73 283 243 49 216 257 211 169 55 114 46 68 46 144 47 97 65 72 48 42 103 82 61
is_linear=0
shrinkage=0.05


Tree=4
num_leaves=31
num_cat=0
split_feature=0 4 0 0 5 8 10 3 3 7 10 8 4 8 10 5 5 9 23 9 5 0 5 5 1 5 4 3 7 0
split_gain=6574.33 2159.8 1398.58 830.145 808.911 755.918 492.249 490.473 492.398 473.954 355.718 250.987 325.555 472.976 443.779 337.706 245.377 240.831 331.529 322.151 241.102 213.321 210.583 191.296 230.11 157.784 127.548 86.9582 148.857 160.635
threshold=1.0000000180025095e-35 -0.94072580018550123 0.98424685854933747 -1.3999712357929972 0.51791897488163896 1.319751637721045 0.8238091542601137 0.98962283715949628 0.42865476584883921 -0.73649752168122784 -0.53317632489861222 -0.66848310255915611 1.6188518186669969 0.69871794262186793 -0.81160926555816637 -0.92806897705537506 -0.48191613865602251 -0.71636412299595975 1.0000000180025095e-35 -0.047954527437197143 -0.40457040345782608 -0.41600821273108141 0.87257746798556435 -0.49134854538750983 0.38947850033278036 0.65374563181505707 -0.53826616817808015 0.34397336286258989 -0.019074302997783066 -1.8541080156677274
decision_type=2 2 2 2 2 2 2 2 2 2 2 2 2 2 2 2 2 2 2 2 2 2 2 2 2 2 2 2 2 2
left_child=3 -2 5 27 7 6 11 8 -4 -5 25 16 13 14 -13 -16 -3 20 19 -19 -12 -21 -18 -17 -25 -11 -9 28 29 -1
right_child=1 2 4 9 -6 -7 -8 26 -10 10 17 12 -14 -15 15 23 22 18 -20 21 -22 -23 -24 24 -26 -27 -28 -29 -30 -31
leaf_value=-0.39678904438018803 0.59721901935079824 -0.19870385428269705 0.26784935111091251 0.083740689826232423 0.52068808837370439 0.27935593820387322 0.22660504327370573 0.22885624559029291 -0.045724029790970594 -0.27829371345043186 0.12748213905308928 -0.087868963859298016 -0.12281459206394081 -0.0873191898688674 -0.012342471310070583 0.32703015625476839 0.075668305955056497 -0.22970527041526068 -0.25662849868337312 0.11393275273882825 -0.11211164315186797 -0.10384700574425304 -0.13223358013090633 0.26095905725074853 0.029063303470611576 -0.11761039224537938 0.40150423586368567 -0.3739285926024119 -0.14508017102877299 -0.23180824981278017
leaf_weight=25 23 27 21 27 22 31 26 23 31 50 21 22 29 40 21 25 29 21 36 23 21 22 21 23 20 22 20 21 21 36
leaf_count=25 23 27 21 27 22 31 26 23 31 50 21 22 29 40 21 25 29 21 36 23 21 22 21 23 20 22 20 21 21 36
internal_value=0 0.12513 0.0999372 -0.164188 0.24749 0.0449574 0.0192812 0.184223 0.0809114 -0.113765 -0.138453 -0.00169319 0.0306243 0.0600927 0.113214 0.16292 -0.0772406 -0.0930822 -0.134575 -0.0679999 0.00768525 0.00746265 -0.0116505 0.217045 0.153101 -0.229196 0.309158 -0.283146 -0.259896 -0.299423
internal_weight=0 454 431 346 117 314 283 95 52 243 216 257 180 151 111 89 77 144 102 66 42 45 50 68 43 72 43 103 82 61
internal_count=800 454 431 346 117 314 283 95 52 243 216 257 180 151 111 89 77 144 102 66 42 45 50 68 43 72 43 103 82 61
is_linear=0
shrinkage=0.05


Tree=5
num_leaves=31
num_cat=0
split_feature=0 4 0 3 3 2 0 8 23 3 7 8 10 1 4 1 10 5 7 7 9 23 1 5 1 5 8 3 7 0
split_gain=5933.34 1949.22 1262.22 772.813 966.682 845.788 749.206 682.216 487.218 469.53 427.744 344.266 405.868 400.484 390.016 453.842 321.035 309.043 255.301 235.8 217.35 299.205 305.742 217.594 190.562 142.4 118.96 78.4798 134.344 144.973
threshold=1.0000000180025095e-35 -0.94072580018550123 0.98424685854933747 0.22952404310606483 0.52960683141759957 1.0162375756424185 -1.3999712357929972 1.319751637721045 1.0000000180025095e-35 0.9783443096875285 -0.73649752168122784 -0.68702142181584802 -0.42697692604316634 0.40390429783573067 1.5942365506543108 0.24522052530327679 -0.53317632489861222 -0.5875590940486809 -0.44504433909107827 -0.49735644878674617 -0.71636412299595975 1.0000000180025095e-35 -0.31738557731178607 -0.40457040345782608 0.80061372916686546 0.65374563181505707 0.31404781804551168 0.34397336286258989 -0.019074302997783066 -1.8541080156677274
decision_type=2 2 2 2 2 2 2 2 2 2 2 2 2 2 2 2 2 2 2 2 2 2 2 2 2 2 2 2 2 2
left_child=6 -2 7 -4 -5 -6 27 9 -7 11 -8 17 13 26 15 -14 25 -3 -15 -19 23 22 -22 -18 -17 -12 -13 28 29 -1
right_child=1 2 3 4 5 8 10 -9 -10 -11 16 12 14 18 -16 24 20 19 -20 -21 21 -23 -24 -25 -26 -27 -28 -29 -30 -31
leaf_value=-0.37694959926605226 0.56735805733048394 -0.26104224383831026 0.49490045568217406 -0.12739991957233066 0.45564979314804077 -0.058962734824135193 0.079553646815043913 0.2653881394094037 0.2816311617692312 0.2019404643966306 -0.26437902809679509 -0.2446239557862282 0.33074586391448979 -0.07411067433655262 -0.084928520731627946 -0.046752352267503738 0.12110803262108849 -0.16693361344791594 0.16556149773299694 0.042837291714307425 0.056956507188492815 -0.2437970808810658 -0.15987379631480658 -0.10650606921740942 0.16427707309308259 -0.11172987551174381 -0.072171199321746829 -0.35523216213498798 -0.13782616250571753 -0.22021784215337703
leaf_weight=25 23 20 23 21 31 21 27 31 21 31 50 20 26 20 20 20 21 21 25 37 29 36 37 21 23 22 20 21 21 36
leaf_count=25 23 20 23 21 31 21 27 31 21 31 50 20 26 20 20 20 21 21 25 37 29 36 37 21 23 22 20 21 21 36
internal_value=0 0.118873 0.0949403 0.235115 0.171551 0.25755 -0.155978 0.0427095 0.111334 0.0183171 -0.108077 -0.00427144 0.0348567 -0.0432833 0.109485 0.165836 -0.131531 -0.0915573 0.0590405 -0.0331142 -0.0884281 -0.127846 -0.0645999 0.00730098 0.0661239 -0.217736 -0.158398 -0.268988 -0.246902 -0.284452
internal_weight=0 454 431 117 94 73 346 314 42 283 243 252 174 85 89 69 216 78 45 58 144 102 66 42 43 72 40 103 82 61
internal_count=800 454 431 117 94 73 346 314 42 283 243 252 174 85 89 69 216 78 45 58 144 102 66 42 43 72 40 103 82 61
is_linear=0
shrinkage=0.05


Tree=6
num_leaves=30
num_cat=0
split_feature=0 4 0 1 7 0 1 8 10 8 5 23 10 3 10 5 6 5 4 7 6 7 5 3 8 8 5 10 8
split_gain=5354.84 1759.17 1139.15 749.353 885.029 676.158 667.487 615.7 436.059 416.434 519.077 402.818 379.572 245.893 363.725 242.577 304.904 269.428 313.086 257.007 300.913 432.003 278.255 168.26 181.072 139.192 74.8391 74.8253 44.3819
threshold=1.0000000180025095e-35 -0.94072580018550123 0.98424685854933747 -0.093785716016055662 0.51151995248684823 -1.3999712357929972 0.95929750169931849 1.319751637721045 0.8238091542601137 0.82385159760453808 -0.53662409769864927 1.0000000180025095e-35 -0.53317632489861222 -0.19517722907606391 0.16281369282864833 1.106501154926451 -0.19712136441366673 -1.1125668527232679 -0.63467596789443481 -0.49735644878674617 -0.21058633512217614 -0.39273222939541047 -0.67245075463206738 0.43568073378219624 -0.30466858714657857 -0.45065785129302699 0.067049933116542462 -0.010735607358613187 -0.70555974107253983
decision_type=2 2 2 2 2 2 2 2 2 2 2 2 2 2 2 2 2 2 2 2 2 2 2 2 2 2 2 2 2
left_child=5 -2 7 -4 6 27 11 8 15 12 -11 -5 26 14 -14 17 -17 -3 -19 22 21 -21 -20 24 -23 -15 -7 -1 -29
right_child=1 2 3 4 -6 9 -8 -9 -10 10 -12 -13 13 25 -16 16 -18 18 19 20 -22 23 -24 -25 -26 -27 -28 28 -30
leaf_value=-0.20094643323085248 0.53899015304834952 -0.15426169067621232 0.49390880706764406 0.18966724021094186 -0.10628777690555738 -0.2904456247886022 0.033357604220509533 0.2521187274686752 0.21253372946610818 0.22292156305164099 -0.10379791077106232 0.47935740607125421 0.10015440681017936 -0.2454215017043882 -0.13152365415460535 -0.24683111792518977 0.011603613913059236 0.18405799947438703 0.045292601212859156 0.2874885563339506 -0.121807514272985 -0.021072502136230471 -0.20722828012270234 -0.063380771361548335 0.18077213007211687 -0.095240593070371291 -0.1793074272173856 -0.24584684590658834 -0.32916221690900405
leaf_weight=39 23 20 21 21 23 33 24 31 26 20 31 28 32 27 36 21 25 31 20 21 21 20 24 29 25 36 28 31 33
leaf_count=39 23 20 21 21 23 33 24 31 26 20 31 28 32 27 36 21 25 31 20 21 21 20 24 29 25 36 28 31 33
internal_value=0 0.11293 0.0901933 0.22336 0.164177 -0.148179 0.249392 0.040574 0.0174013 -0.102673 0.0243274 0.355204 -0.136408 -0.0884348 -0.0224987 -0.00233974 -0.106377 0.0203415 0.0386245 0.0104468 0.0494751 0.0873376 -0.0924461 0.030538 0.0910634 -0.159604 -0.239431 -0.255539 -0.288806
internal_weight=0 454 431 117 96 346 73 314 283 243 51 49 192 131 68 257 46 211 191 160 116 95 44 74 45 63 61 103 64
internal_count=800 454 431 117 96 346 73 314 283 243 51 49 192 131 68 257 46 211 191 160 116 95 44 74 45 63 61 103 64
is_linear=0
shrinkage=0.05


Tree=7
num_leaves=31
num_cat=0
split_feature=44 31 8 60 4 7 1 3 10 4 10 3 1 9 7 1 5 12 8 4 3 10 1 10 8 4 5 5 10 8
split_gain=1714.45 875.602 1005.82 620.1 803.631 546.626 625.458 493.978 560.193 482.118 469.801 740.739 444.759 437.902 416.774 379.485 311.468 288.343 289.031 337.299 202.166 194.362 420.107 515.89 414.792 415.591 166.718 160.719 134.853 110.046
threshold=1.0000000180025095e-35 1.0000000180025095e-35 0.49479643079825736 1.0000000180025095e-35 -0.94072580018550123 0.51151995248684823 0.95929750169931849 -0.072777471921266698 1.1301654117176982 -0.95549496099311304 -0.035181013108776325 0.66901682672683982 1.0602780842199711 -0.21317130011695581 -0.19843010766864425 -1.5580041625655154 -0.24987893306143313 1.0000000180025095e-35 0.73579458113525165 -0.013960959507861874 0.47469334520162559 -0.35124002683043237 0.252433424054752 0.16281369282864833 0.82385159760453808 -0.35857471168547006 -0.40834336615042099 0.60658359815762009 0.18338107387057032 0.19818332269118802
decision_type=2 2 2 2 2 2 2 2 2 2 2 2 2 2 2 2 2 2 2 2 2 2 2 2 2 2 2 2 2 2
left_child=1 3 14 4 9 6 16 8 15 -1 12 29 17 -13 -3 -6 -2 18 19 26 -20 24 23 27 25 -17 -9 -23 -24 -12
right_child=5 2 -4 -5 7 -7 -8 10 -10 -11 11 13 -14 -15 -16 21 -18 -19 20 -21 -22 22 28 -25 -26 -27 -28 -29 -30 -31
leaf_value=0.016585353933847868 0.2521659018901678 -0.18045977694647652 0.35565872232119244 -0.26722092251143148 0.22018826022034599 -0.01210073850772999 0.031689725195368133 -0.21293726814064115 -0.24649283059618693 0.33869175130412699 -0.096485040075070153 0.28934713162126996 0.060335088130973637 -0.0027239898389036007 0.11653556801654674 -0.22628628640974824 0.49485777676105497 -0.34034387874323874 0.050709220378295242 -0.32980127588791008 -0.16386484333447049 0.33231418296694759 -0.18099733233451842 -0.03254444791990168 0.13756871629845013 0.0060538380096356072 -0.01347539931535721 0.1342662556185609 0.0026144182682037356 -0.24205715879797937
leaf_weight=26 39 21 30 31 21 27 24 22 22 21 37 21 21 33 27 38 20 25 23 34 21 20 20 34 22 39 20 21 20 20
leaf_count=26 39 21 30 31 21 27 24 22 22 21 37 21 21 33 27 38 20 25 23 34 21 20 20 34 22 39 20 21 20 20
internal_value=0 -0.0292253 0.128546 -0.0493334 -0.0377077 0.183322 0.246894 -0.0551534 -0.00522743 0.160505 -0.101475 -0.0218441 -0.154722 0.110859 -0.0133999 0.0173591 0.334434 -0.185868 -0.153685 -0.212729 -0.0517011 -0.00254468 0.041667 0.111458 -0.0539017 -0.108608 -0.117955 0.230875 -0.0891915 -0.147563
internal_weight=0 690 78 612 581 110 83 534 257 47 277 111 166 54 48 235 59 145 120 76 44 214 115 75 99 77 42 41 40 57
internal_count=800 690 78 612 581 110 83 534 257 47 277 111 166 54 48 235 59 145 120 76 44 214 115 75 99 77 42 41 40 57
is_linear=0
shrinkage=0.05


Tree=8
num_leaves=31
num_cat=0
split_feature=44 31 8 60 4 6 7 1 3 10 3 10 9 7 1 5 4 8 3 6 5 4 5 2 8 10 2 4 10 8
split_gain=1547.29 790.231 907.749 559.64 725.277 604.539 493.33 564.476 445.815 505.575 433.752 658.97 395.206 376.139 342.485 281.1 256.592 215.873 391.691 206.131 180 389.894 376.813 281.911 260.949 255.001 505.646 151.652 126.194 96.3122
threshold=1.0000000180025095e-35 1.0000000180025095e-35 0.49479643079825736 1.0000000180025095e-35 -0.94072580018550123 -0.20666338810566612 0.51151995248684823 0.95929750169931849 -0.072777471921266698 1.1301654117176982 0.66901682672683982 -0.035181013108776325 -0.21317130011695581 -0.19843010766864425 -1.5580041625655154 -0.24987893306143313 0.084500112542883463 -0.27917839816862727 0.31180182548353452 -0.21068056454767495 1.0838633787708811 -0.88287992035568841 0.71411303489657629 -1.0793186413034219 -0.028911088203287371 -0.77337532751203464 -0.30755369183999254 0.84757342093615906 -0.27507993047691809 -0.049766697367065717
decision_type=2 2 2 2 2 2 2 2 2 2 2 2 2 2 2 2 2 2 2 2 2 2 2 2 2 2 2 2 2 2
left_child=1 3 13 4 5 -1 7 15 9 14 17 16 -13 -3 -6 -2 -12 19 27 28 22 -22 23 -16 -23 -25 -27 -19 -10 -28
right_child=6 2 -4 -5 8 -7 -8 -9 10 -11 11 12 -14 -15 20 -17 -18 18 -20 -21 21 24 -24 25 -26 26 29 -29 -30 -31
leaf_value=0.31363955461061921 0.23955760888564281 -0.17143678807076956 0.33787578610082469 -0.25385987669710192 0.20917884579726628 -0.047050949221565608 -0.011495700147416858 0.030105237911144896 -0.35284244585037233 -0.23416819111020729 -0.011281245687733525 0.27487977769758021 -0.002587789884119323 0.11070878748540525 -0.16919526273295993 0.47011488854885103 -0.22883398556644383 -0.072791904608408606 -0.19960475912690165 -0.091201412525366662 0.084679088020628249 -0.27376505058744682 0.23162648462690416 -0.1225416265738507 -0.03558859449365865 0.20488146358218634 0.030231223106384278 0.1049556313455105 -0.18433812223374846 -0.12308144995144435
leaf_weight=26 39 21 30 31 21 21 27 24 25 22 23 21 33 27 21 20 33 30 50 22 27 23 20 21 23 38 20 20 20 21
leaf_count=26 39 21 30 31 21 21 27 24 25 22 23 21 33 27 21 20 33 30 50 22 27 23 20 21 23 38 20 20 20 21
internal_value=0 -0.027764 0.122118 -0.0468667 -0.0358223 0.15248 0.174156 0.234549 -0.0523957 -0.00496606 -0.0964009 -0.0193083 0.105316 -0.0127299 0.0164912 0.317713 -0.139482 -0.14718 -0.100649 -0.216631 -0.00241745 -0.0661479 0.0305778 -0.00265343 -0.154677 0.0323204 0.0734862 -0.00169289 -0.277952 -0.0482948
internal_weight=0 690 78 612 581 47 110 83 534 257 277 110 54 48 235 59 56 167 100 67 214 73 141 121 46 100 79 50 45 41
internal_count=800 690 78 612 581 47 110 83 534 257 277 110 54 48 235 59 56 167 100 67 214 73 141 121 46 100 79 50 45 41
is_linear=0
shrinkage=0.05


Tree=9
num_leaves=31
num_cat=0
split_feature=44 31 8 60 4 5 7 1 3 10 3 10 9 7 1 5 4 8 3 3 10 7 4 10 4 8 8 4 7 7
split_gain=1396.43 713.183 819.244 505.075 654.562 452.02 445.23 509.439 402.348 456.281 391.461 594.72 356.674 339.465 309.093 253.692 231.574 194.825 353.501 169.188 453.632 394.883 531.992 239.364 230.591 221.297 139.479 134.336 84.9759 67.6283
threshold=1.0000000180025095e-35 1.0000000180025095e-35 0.49479643079825736 1.0000000180025095e-35 -0.94072580018550123 1.2272359610894894 0.51151995248684823 0.95929750169931849 -0.072777471921266698 1.1301654117176982 0.66901682672683982 -0.035181013108776325 -0.21317130011695581 -0.19843010766864425 -1.5580041625655154 -0.24987893306143313 0.084500112542883463 -0.27917839816862727 0.31180182548353452 -0.86486290946077038 -0.53444591632095306 -0.43009802203517328 -0.35857471168547006 -0.84725015930533532 0.70808690219760351 -0.45992701092137295 0.73579458113525165 0.47013931140830251 -0.38525907086745798 -0.041493778581640529
decision_type=2 2 2 2 2 2 2 2 2 2 2 2 2 2 2 2 2 2 2 2 2 2 2 2 2 2 2 2 2 2
left_child=1 3 13 4 5 -1 7 15 9 14 17 16 -13 -3 -6 -2 -12 27 26 24 23 -22 -23 -21 25 -16 -19 28 -10 -20
right_child=6 2 -4 -5 8 -7 -8 -9 10 -11 11 12 -14 -15 19 -17 -18 18 29 20 21 22 -24 -25 -26 -27 -28 -29 -30 -31
leaf_value=-0.0006032266616821289 0.2275797249414982 -0.16286494767382032 0.320982003385822 -0.24116688114741158 0.19871990354288194 0.31015050519596449 -0.010920917767065543 0.028599975009759266 -0.098359812754922768 -0.22245978211814707 -0.010717183643061182 0.26113579209361759 -0.0024583972313187343 0.10517335180883054 -0.10464443744670959 0.44660914778709415 -0.21739228652282194 -0.088528396499653661 -0.23710376063982649 0.028991360573664957 0.22810478889279895 -0.16450306541569856 0.16870029571652412 -0.19244377934015716 -0.20659714281558991 0.085849370459715524 0.078625738735382381 -0.31058371734051482 -0.23544643543660643 -0.11840565925464036
leaf_weight=25 39 21 30 31 21 22 27 24 26 22 23 21 33 27 31 20 33 24 30 23 36 23 25 26 20 30 26 21 20 20
leaf_count=25 39 21 30 31 21 22 27 24 26 22 23 21 33 27 31 20 33 24 30 23 36 23 25 26 20 30 26 21 20 20
internal_value=0 -0.0263758 0.116013 -0.0445234 -0.0340312 0.144856 0.165448 0.222822 -0.049776 -0.00471776 -0.0915809 -0.0183429 0.10005 -0.0120934 0.0156666 0.301827 -0.132508 -0.139821 -0.0956164 -0.00229657 0.0323983 0.102925 0.00904035 -0.0885048 -0.0592647 -0.010959 -0.00160825 -0.205799 -0.157963 -0.189625
internal_weight=0 690 78 612 581 47 110 83 534 257 277 110 54 48 235 59 56 167 100 214 133 84 48 49 81 61 50 67 46 50
internal_count=800 690 78 612 581 47 110 83 534 257 277 110 54 48 235 59 56 167 100 214 133 84 48 49 81 61 50 67 46 50
is_linear=0
shrinkage=0.05


Tree=10
num_leaves=31
num_cat=0
split_feature=0 4 0 1 4 0 8 10 7 7 5 6 5 2 1 1 5 2 23 10 1 0 5 5 23 1 5 7 1 0
split_gain=4107.12 1430.31 753.021 677.307 704.963 521.57 458.88 379.339 344.239 324.948 216.54 251.249 243.401 253.657 486.399 328.209 639.018 330.681 220.84 213.335 205.081 179.589 243.593 380.157 218.297 117.494 104.939 69.3675 68.0219 116.217
threshold=1.0000000180025095e-35 -0.94072580018550123 0.98424685854933747 -0.093785716016055662 -0.52718929757237121 -1.3999712357929972 1.319751637721045 0.8238091542601137 -0.73649752168122784 -0.59488116757652698 1.106501154926451 -0.19712136441366673 -1.0399373208908151 -0.2941549948006969 0.39669139908425549 0.61307836162851082 -0.3951379967263387 0.78577998656653347 1.0000000180025095e-35 -0.53317632489861222 0.75733633665801425 -0.71876606598090154 -0.55926187385421888 -0.93221923601722956 1.0000000180025095e-35 -0.29574688105736052 0.65374563181505707 0.070603599337647635 0.2380076265518016 -1.7784185523552725
decision_type=2 2 2 2 2 2 2 2 2 2 2 2 2 2 2 2 2 2 2 2 2 2 2 2 2 2 2 2 2 2
left_child=5 -2 6 -4 20 27 7 10 -7 -6 12 -12 -3 14 -14 17 -17 18 -15 26 -5 -21 23 -23 25 -24 -10 28 29 -1
right_child=1 2 3 4 9 8 -8 -9 19 -11 11 -13 13 15 -16 16 -18 -19 -20 21 -22 22 24 -25 -26 -27 -28 -29 -30 -31
leaf_value=-0.28301864915993064 0.48307926706645798 -0.097332052394954696 0.4438848313831148 0.086006688326597219 0.40258165868845852 0.07851676659451591 0.22068586157214259 0.20005215819065392 -0.22115938249230385 0.14775107482383992 -0.2261535479908898 0.0084428399056196216 0.28612424946493575 -0.033600231209261852 -0.0020368416560813786 0.30954172071956454 -0.061291891336441043 0.082964985320965454 -0.25518509447574617 0.043245886380855858 -0.12794889041355678 -0.14870951141823421 -0.025434200682826081 0.1524868862517178 -0.28005793193976086 -0.17586187601089479 -0.090118269825523553 -0.14753807671368122 -0.3233454336722692 -0.14216304024060566
leaf_weight=32 23 36 21 24 22 27 31 26 50 29 21 25 27 22 32 21 26 24 23 26 21 22 27 20 24 25 22 23 21 27
leaf_count=32 23 36 21 24 22 27 31 26 50 29 21 25 27 22 32 21 26 24 23 26 21 22 27 20 24 25 22 23 21 27
internal_value=0 0.0989017 0.0784004 0.18667 0.130404 -0.129773 0.0380579 0.0180527 -0.0898056 0.257678 -0.000359717 -0.0986555 0.0210697 0.0454266 0.129833 0.00249555 0.1044 -0.0669174 -0.146855 -0.110846 -0.0138392 -0.0757093 -0.10192 -0.00528266 -0.155324 -0.0977552 -0.181119 -0.224064 -0.246066 -0.218559
internal_weight=0 454 431 117 96 346 314 283 243 51 257 46 211 175 59 116 47 69 45 216 45 144 118 42 76 52 72 103 80 59
internal_count=800 454 431 117 96 346 314 283 243 51 257 46 211 175 59 116 47 69 45 216 45 144 118 42 76 52 72 103 80 59
is_linear=0
shrinkage=0.05


Tree=11
num_leaves=31
num_cat=0
split_feature=44 31 60 4 6 4 1 4 3 10 9 9 23 9 10 1 6 7 5 5 9 2 9 9 3 10 9 1 6 6
split_gain=1127.42 619.664 414.512 521.822 503.918 401.24 639.096 383.852 343.296 425.722 355.364 571.058 314.191 312.769 300.857 542.44 299.551 285.109 278.753 456.49 188.254 180.819 200.11 173.797 251.576 193.811 191.22 168.953 126.565 73.5025
threshold=1.0000000180025095e-35 1.0000000180025095e-35 1.0000000180025095e-35 -0.94072580018550123 -0.20666338810566612 -0.42298466298533255 0.85831691917866604 1.2414177091391401 -0.072777471921266698 0.5851259668600316 -0.56716619392819523 -0.78622208448772735 1.0000000180025095e-35 0.28996764772747868 -0.35124002683043237 0.252433424054752 -0.21097997595847709 -0.28063485147612216 -0.67622371732466224 0.067049933116542462 0.54332397696291779 -0.51389362624514523 0.003442255542092897 -0.071533834233775781 1.0375103554421132 -0.71365066920773301 0.90182641533313734 0.93044590669341776 -0.2085479766156432 -0.21093104914139119
decision_type=2 2 2 2 2 2 2 2 2 2 2 2 2 2 2 2 2 2 2 2 2 2 2 2 2 2 2 2 2 2
left_child=1 2 3 4 -1 6 13 27 9 14 11 18 -7 -2 17 16 -16 21 -10 -20 -18 22 -5 -12 25 -25 29 -3 -11 -27
right_child=5 7 -4 8 -6 12 -8 -9 10 28 23 -13 -14 -15 15 -17 20 -19 19 -21 -22 -23 -24 24 -26 26 -28 -29 -30 -31
leaf_value=0.27574922900933485 0.041337678545997264 -0.036652295043071111 -0.21875908865082649 -0.048182045314460992 -0.053558819066910512 0.10901128592945281 -0.16864699482917789 0.27052530908584593 0.072000398258678613 -0.067724718106910595 -0.2476900576398923 0.16443726017605514 0.36485590423856462 0.31761736996471884 0.29949837785500749 -0.080958682118040137 -0.0051497495174407963 0.085238621277468549 -0.29266848787665367 -0.0045267085677811077 0.20065870642662051 -0.0031831443638486025 -0.27185057938098905 -0.017261241793632507 0.024373612796951986 -0.16801394512810347 -0.2751743496666032 0.14751798816025258 -0.23803159657865766 -0.054406348367532102
leaf_weight=26 21 33 31 20 21 21 20 25 20 24 26 32 28 20 26 33 25 35 27 28 20 34 20 25 29 35 31 20 20 24
leaf_count=26 21 33 31 20 21 21 20 25 20 24 26 32 28 20 26 33 25 35 27 28 20 34 20 25 29 35 31 20 20 24
internal_value=0 -0.0236996 -0.0406155 -0.0311104 0.128612 0.148661 0.0630738 0.109025 -0.0451683 -0.00354786 -0.0837837 -0.0124 0.255208 0.176108 0.0257006 0.0865361 0.164386 -0.0323443 -0.0878505 -0.145978 0.0863207 -0.0879578 -0.160016 -0.128713 -0.107232 -0.140419 -0.174629 0.0328459 -0.145137 -0.121801
internal_weight=0 690 612 581 47 110 61 78 534 257 277 107 49 41 213 104 71 109 75 55 45 74 40 170 144 115 90 53 44 59
internal_count=800 690 612 581 47 110 61 78 534 257 277 107 49 41 213 104 71 109 75 55 45 74 40 170 144 115 90 53 44 59
is_linear=0
shrinkage=0.05


Tree=12
num_leaves=31
num_cat=0
split_feature=0 0 1 7 7 7 5 8 0 0 9 7 7 8 1 8 5 3 9 5 10 3 46 23 8 7 9 5 1 9
split_gain=3525.94 1007.84 2010.51 603.229 486.855 894.718 507.652 477.591 501.245 441.294 367.173 461.839 393.895 374.322 363.746 335.038 441.586 318.667 268.323 321.062 263.572 176.36 284.129 146.607 73.8727 60.6473 70.5855 56.3313 50.8798 22.4845
threshold=1.0000000180025095e-35 0.98424685854933747 -0.23083079229408399 0.51151995248684823 -0.25821537589226468 -0.13864483944502376 0.19533066466477075 0.19818332269118802 0.34088642039346934 -1.3999712357929972 -1.0662824725247746 -0.43009802203517328 -0.48241013173084107 -0.66848310255915611 0.95929750169931849 0.82385159760453808 -0.53662409769864927 1.0437967478035381 0.0042503810606354811 -0.31779226152814227 -0.53317632489861222 -0.3266367869870318 1.0000000180025095e-35 1.0000000180025095e-35 -0.45065785129302699 0.070603599337647635 0.82589853327987417 0.067049933116542462 0.18751733529147538 0.073964675793550885
decision_type=2 2 2 2 2 2 2 2 2 2 2 2 2 2 2 2 2 2 2 2 2 2 2 2 2 2 2 2 2 2
left_child=9 4 -3 14 10 -6 7 8 -7 25 -2 12 13 -12 17 20 -17 -4 -15 -20 27 22 -22 24 -23 26 28 -11 29 -1
right_child=1 2 3 -5 5 6 -8 -9 -10 15 11 -13 -14 18 -16 16 -18 -19 19 -21 21 23 -24 -25 -26 -27 -28 -29 -30 -31
leaf_value=-0.18461635205894711 -0.14540616656212432 0.61381339423730974 0.36191862364610039 -0.10618723978598912 0.42608411371707916 0.23429166451096536 -0.098747520597980309 0.29477493112971048 -0.068641263453496831 -0.2438454560258172 -0.11751871243087125 -0.12781108523615534 0.26247352050698319 0.24042728340083902 0.021296920130650203 0.21360844604671003 -0.087738724966203011 0.10796567002932232 0.16051856563204814 -0.11939995676279068 0.081187337594372896 -0.14707440672442318 -0.1421772334103783 -0.22410437899827956 -0.020290494075527899 -0.13541849691258825 -0.14619787275791168 -0.14742395795349564 -0.31977616816759113 -0.2595904374867678
leaf_weight=20 38 25 30 24 20 22 34 29 36 33 29 36 23 22 24 20 31 21 21 20 35 20 24 25 27 23 20 28 20 20
leaf_count=20 38 25 30 24 20 22 34 29 36 33 29 36 23 22 24 20 31 21 21 20 35 20 24 25 27 23 20 28 20 20
internal_value=0 0.0916374 0.213168 0.111995 0.0459714 0.116284 0.0650776 0.129101 0.0462643 -0.120241 -0.0064841 0.0284764 0.0774012 0.0311331 0.181813 -0.0834779 0.0304366 0.25735 0.0995602 0.0239729 -0.113737 -0.0737606 -0.00967283 -0.126277 -0.0742411 -0.206973 -0.227545 -0.199586 -0.254661 -0.222103
internal_weight=0 454 124 99 330 141 121 87 58 346 189 151 115 92 75 243 51 51 63 41 192 131 59 72 47 103 80 61 60 40
internal_count=800 454 124 99 330 141 121 87 58 346 189 151 115 92 75 243 51 51 63 41 192 131 59 72 47 103 80 61 60 40
is_linear=0
shrinkage=0.05


Tree=13
num_leaves=31
num_cat=0
split_feature=0 4 0 5 0 3 8 3 2 8 5 8 4 10 4 1 9 5 10 6 4 28 46 0 0 2 3 10 5 5
split_gain=3182.16 1188.43 545.728 562.069 398.268 397.878 378.434 349.172 323.567 302.372 398.532 245.155 330.375 304.948 365.185 274.966 256.47 245.433 237.874 170.986 168.322 163.337 212.364 459.295 289.648 85.9619 53.2944 62.5554 50.839 31.9163
threshold=1.0000000180025095e-35 -0.94072580018550123 0.98424685854933747 0.51791897488163896 -1.3999712357929972 0.98962283715949628 1.319751637721045 0.9783443096875285 0.69198910729146379 0.82385159760453808 -0.53662409769864927 -0.68702142181584802 1.8567994094562981 -0.42697692604316634 0.84757342093615906 0.24522052530327679 0.0020774213329991017 -0.5875590940486809 -0.53317632489861222 -0.21073285670138589 0.5439851154463613 1.0000000180025095e-35 1.0000000180025095e-35 -0.49169767604353648 -0.71876606598090154 1.0912702790624742 0.34397336286258989 -0.49711223401066307 0.067049933116542462 -0.73659112040618135
decision_type=2 2 2 2 2 2 2 2 2 2 2 2 2 2 2 2 2 2 2 2 2 2 2 2 2 2 2 2 2 2
left_child=4 -2 6 5 26 8 7 11 -4 18 -11 17 13 14 16 -15 -13 -3 28 -19 -17 22 23 24 -20 -7 27 -1 -6 -29
right_child=1 2 3 -5 9 25 -8 -9 -10 10 -12 12 -14 15 -16 20 -18 19 21 -21 -22 -23 -24 -25 -26 -27 -28 29 -30 -31
leaf_value=-0.10153245095163584 0.43724536630122562 -0.22831858366727831 0.11335381250828505 0.38826942362568601 -0.23165318378896427 0.28939556100151759 0.19987300557474938 0.17420616548568491 -0.14301406756043433 0.20292802810668947 -0.083351792683524481 0.037939436992873318 -0.15169985036958347 0.2450412302960952 0.14415092337131502 0.13800658193649726 -0.18398317189266286 0.066790938874085756 0.036306508362293245 -0.10531702132354821 -0.058395371427759524 -0.18795889429748058 -0.14255367964506149 0.19024174057919047 -0.20955575924852621 0.14796730223156157 -0.26769509210938675 -0.15124072019010781 -0.14005276084478413 -0.22798261090758301
leaf_weight=20 23 20 32 22 33 22 31 31 20 20 31 23 22 30 25 24 30 27 25 31 20 24 36 23 23 21 21 20 28 42
leaf_count=20 23 20 32 22 33 22 31 31 20 20 31 23 22 30 25 24 30 27 25 31 20 24 36 23 23 21 21 20 28 42
internal_value=0 0.0870555 0.0683679 0.160538 -0.114229 0.107801 0.0340242 0.015857 0.0147508 -0.079304 0.0289148 -0.00362249 0.0293964 0.0556077 -0.0133733 0.128317 -0.0876771 -0.0772801 -0.10805 -0.0251978 0.048733 -0.0700726 -0.0436308 0.00652733 -0.0815025 0.220326 -0.196625 -0.178424 -0.189607 -0.203227
internal_weight=0 454 431 117 346 95 314 283 52 243 51 252 174 152 78 74 53 78 192 58 44 131 107 71 48 43 103 82 61 62
internal_count=800 454 431 117 346 95 314 283 52 243 51 252 174 152 78 74 53 78 192 58 44 131 107 71 48 43 103 82 61 62
is_linear=0
shrinkage=0.05


Tree=14
num_leaves=31
num_cat=0
split_feature=0 4 3 23 2 0 5 9 4 3 8 8 10 4 3 2 4 10 1 1 9 7 5 3 0 7 7 9 1 9
split_gain=2877.62 1612.77 481.189 515.634 614.232 440.979 398.855 431.985 399.958 390.679 367.993 448.232 346.187 332.704 430.462 309.892 322.048 277.386 897.072 583.339 422.788 419.803 164.144 120.227 60.6747 56.5556 54.3632 62.3672 45.8402 20.0803
threshold=0.18950749376855916 -0.94072580018550123 0.52960683141759957 1.0000000180025095e-35 0.75630285308008294 -1.3999712357929972 -0.55926187385421888 -0.59162545962274204 0.49065203475220748 0.66901682672683982 -1.2478055793307763 0.96752357184389948 -0.19548039554288044 -0.93785401891735443 -0.55072818528252154 0.60891718564783071 -0.50093301169217253 -0.38404934698110776 0.29571081656360304 0.39669139908425549 0.18219962024364936 -0.46746381467493597 -0.15932782843915452 -0.14359183293378516 -0.30247401776239879 -0.22832274178045445 0.070603599337647635 0.82589853327987417 0.18751733529147538 0.073964675793550885
decision_type=2 2 2 2 2 2 2 2 2 2 2 2 2 2 2 2 2 2 2 2 2 2 2 2 2 2 2 2 2 2
left_child=5 -2 10 4 -4 26 7 -7 13 24 -3 17 -6 -8 -15 -5 -17 18 -12 21 -21 -19 -16 -24 -9 -10 27 28 29 -1
right_child=1 2 3 15 12 6 8 9 25 -11 11 -13 -14 14 22 16 -18 19 -20 20 -22 -23 23 -25 -26 -27 -28 -29 -30 -31
leaf_value=-0.16542934592813255 0.51848209179228266 0.18106936311179944 0.2464722304372117 0.10228727837403616 -0.2088263086974621 0.14553871817494696 -0.25280992190043133 -0.22207314364966893 -0.30773485441692178 0.079574903845787054 -0.30022705371957276 0.17725201441395669 0.06576553968091807 0.1095958214466061 -0.22497789919376376 0.16028698024650415 0.42135845775957464 0.26321545624606579 0.068615572427755553 -0.22873032926271361 0.068053690046072007 0.0066077156546148104 -0.15809415563941004 -0.0066409283366642494 -0.10038696579635142 -0.19156156101010063 -0.11904712060223455 -0.12980519980192184 -0.29356502458453176 -0.23628191899508241
leaf_weight=20 21 33 24 30 22 38 21 21 20 28 32 31 24 35 20 21 27 28 34 30 20 37 20 38 20 22 23 20 20 20
leaf_count=20 21 33 24 30 22 38 21 21 20 28 32 31 24 35 20 21 27 28 34 30 20 37 20 38 20 22 23 20 20 20
internal_value=0 0.0915662 0.0687539 0.139938 0.0414218 -0.0982083 -0.0659672 0.0101616 -0.11225 -0.0643939 0.0257528 0.00157622 -0.065561 -0.0700519 -0.036088 0.22835 0.30714 -0.0285119 -0.110217 0.0183798 -0.110017 0.117146 -0.101459 -0.0588662 -0.162714 -0.246882 -0.186793 -0.20627 -0.231759 -0.200856
internal_weight=0 414 393 148 70 386 283 107 176 69 245 212 46 134 113 78 48 181 66 115 50 65 78 58 41 42 103 80 60 40
internal_count=800 414 393 148 70 386 283 107 176 69 245 212 46 134 113 78 48 181 66 115 50 65 78 58 41 42 103 80 60 40
is_linear=0
shrinkage=0.05


Tree=15
num_leaves=31
num_cat=0
split_feature=0 4 0 3 3 2 0 8 10 24 7 1 4 7 8 0 3 0 8 2 6 4 10 24 7 10 0 7 9 7
split_gain=2598.65 956.356 452.702 508.72 629.817 714.172 323.221 321.012 323.073 285.934 276.171 194.082 245.596 295.657 350.31 158.228 151.26 249.164 164.127 159.416 149.768 277.443 124.865 106.496 96.6752 75.1017 60.9015 49.0628 56.2864 42.3496
threshold=1.0000000180025095e-35 -0.94072580018550123 0.98424685854933747 0.19199058283050022 0.52960683141759957 1.0162375756424185 -1.3999712357929972 1.319751637721045 0.8238091542601137 1.0000000180025095e-35 -0.73649752168122784 0.0071948665045959695 -0.70359871832995646 -0.48241013173084107 0.49479643079825736 0.45442061536215189 -0.43757312277687815 -0.41600821273108141 0.73579458113525165 0.44009360295270517 -0.16248428438139559 0.92141922497421813 -0.44604388085868546 1.0000000180025095e-35 -0.2059032661965968 -0.035181013108776325 -0.41600821273108141 0.070603599337647635 0.82589853327987417 -0.48988329025879368
decision_type=2 2 2 2 2 2 2 2 2 2 2 2 2 2 2 2 2 2 2 2 2 2 2 2 2 2 2 2 2 2
left_child=6 -2 7 -4 -5 -6 27 8 11 -7 -8 20 -13 15 23 -14 17 -12 19 24 21 22 -3 -15 26 -21 -18 28 29 -1
right_child=1 2 3 4 5 9 10 -9 -10 -11 16 12 13 14 -16 -17 18 -19 -20 25 -22 -23 -24 -25 -26 -27 -28 -29 -30 -31
leaf_value=-0.18343701073352028 0.39281244375135588 -0.26129403398150491 0.36250790371136232 -0.13883086849342693 0.34839071592976972 0.16245757795515514 0.07900212048380463 0.18337504344601785 0.18185421625295511 -0.098462854964392527 0.08926524685488807 0.17740221920733651 -0.16634140523343252 -0.066766479375461749 0.22939139178184714 0.0035247392665881381 -0.20208056914535436 -0.12554047053886785 -0.023853693412322748 -0.2632998981866343 0.060424667596817021 0.026056647197953586 -0.092661045102969464 0.064361961500253528 -0.028265596637802738 -0.14079044630581683 -0.081526359170675286 -0.11309476643800737 -0.12331494063138962 -0.26820735124727857
leaf_weight=34 23 21 22 22 31 21 27 31 26 21 27 24 29 30 23 26 22 27 38 29 20 29 23 32 31 22 20 23 20 26
leaf_count=34 23 21 22 22 31 21 27 31 26 21 27 24 29 30 23 26 22 27 38 29 20 29 23 32 31 22 20 23 20 26
internal_value=0 0.07867 0.061906 0.145854 0.0956813 0.166356 -0.103226 0.030626 0.0138938 0.0319974 -0.0717631 -0.00309827 0.0296219 0.00428809 0.0627364 -0.086041 -0.0906088 -0.0181376 -0.114766 -0.142626 -0.0607983 -0.0940101 -0.173145 0.000912716 -0.0952402 -0.210453 -0.144674 -0.177454 -0.195957 -0.220171
internal_weight=0 454 431 117 95 73 346 314 283 42 243 257 164 140 85 55 216 54 162 124 93 73 44 62 73 51 42 103 80 60
internal_count=800 454 431 117 95 73 346 314 283 42 243 257 164 140 85 55 216 54 162 124 93 73 44 62 73 51 42 103 80 60
is_linear=0
shrinkage=0.05


Tree=16
num_leaves=30
num_cat=0
split_feature=44 31 8 4 1 3 10 3 3 1 4 9 38 9 9 5 8 23 2 4 8 5 2 10 3 10 6 4 9
split_gain=645.217 422.762 571.419 316.363 499.837 285.048 468.6 557.336 360.497 354.654 266.252 257.301 249.422 565.1 287.089 205.303 480.826 380.679 424.303 356.066 343.591 364.915 225.802 207.377 191.793 160.35 128.333 211.257 120.781
threshold=1.0000000180025095e-35 1.0000000180025095e-35 0.49479643079825736 -0.42298466298533255 0.85831691917866604 -0.71768737064624044 0.5851259668600316 -0.99817140630156909 -1.3988364723958975 -0.41475971045670096 0.15834591658094246 0.28996764772747868 1.0000000180025095e-35 -0.53618804905074036 -1.433422874770969 -0.57246724327830123 -0.82142423642686369 1.0000000180025095e-35 0.63571457972642198 -0.89887984456393444 -0.50163822924892931 -0.97730614019373918 0.83401529590799794 0.080374889804648339 0.32603865524323133 -0.76820462790104638 -0.21090366047870496 0.49065203475220748 -0.72419396135339198
decision_type=2 2 2 2 2 2 2 2 2 2 2 2 2 2 2 2 2 2 2 2 2 2 2 2 2 2 2 2 2
left_child=1 5 28 4 11 6 7 8 9 -1 -5 -2 14 -14 -7 16 -16 18 19 -17 -18 24 23 -23 -22 -21 27 -19 -3
right_child=3 2 -4 10 -6 12 -8 -9 -10 -11 -12 -13 13 -15 15 17 20 26 -20 25 21 22 -24 -25 -26 -27 -28 -29 -30
leaf_value=0.18778356360271575 0.014190900041943505 0.067400561791399249 0.26288212656974796 0.34741786822676657 -0.16846109032630921 -0.25123349606990814 -0.12585589984235795 0.25409416398033502 -0.1597812914977903 -0.051510909100373585 0.11028039804820358 0.26477741718292241 0.18833477034349927 -0.10881323483918096 -0.20393630601465704 -0.11628443769389583 0.21496886983513833 -0.050456588275921657 -0.22403700107877908 0.20811139643192292 -0.016387385725975038 0.095771313071824044 0.19741979105906055 -0.11838345721364021 -0.21427051387727261 0.033977641470921346 -0.26030869460105899 -0.2237958508078009 -0.091364948689937595
leaf_weight=32 21 23 30 20 20 20 38 32 23 30 29 20 32 32 28 31 20 39 22 20 25 26 22 20 24 39 25 32 25
leaf_count=32 21 23 30 20 20 20 38 32 23 30 29 20 32 32 28 31 20 39 22 20 25 26 22 20 24 39 25 32 25
internal_value=0 -0.0179287 0.0916994 0.112462 0.0364645 -0.0319009 0.026692 0.0762375 0.00927973 0.0719959 0.207071 0.136428 -0.0517738 0.0397608 -0.0666802 -0.0567846 -0.0151357 -0.0898234 -0.0271989 0.0209171 0.0234512 -0.00928681 0.0656709 0.00266054 -0.11331 0.093006 -0.162885 -0.128581 -0.0152898
internal_weight=0 690 78 110 61 612 155 117 85 62 49 41 457 64 393 373 165 208 112 90 137 117 68 46 49 59 96 71 48
internal_count=800 690 78 110 61 612 155 117 85 62 49 41 457 64 393 373 165 208 112 90 137 117 68 46 49 59 96 71 48
is_linear=0
shrinkage=0.05


Tree=17
num_leaves=31
num_cat=0
split_feature=0 4 3 23 2 0 8 8 4 3 9 10 2 4 10 4 4 3 10 10 9 1 3 1 1 1 8 7 1 0
split_gain=2208.71 1345.57 397.473 425.816 513.682 342.144 329.103 369.742 316.5 436.064 443.007 312.272 265.422 274.076 256.87 299.671 224.243 264.276 314.089 281.77 217.962 239.457 213.288 177.73 139.976 114.938 178.085 46.5212 52.519 98.549
threshold=0.18950749376855916 -0.94072580018550123 0.52960683141759957 1.0000000180025095e-35 0.75630285308008294 -1.3999712357929972 -1.2478055793307763 0.96752357184389948 -0.93785401891735443 -0.55072818528252154 0.0064412991331276757 -0.19548039554288044 0.60891718564783071 -0.50093301169217253 -0.35884988087100883 -0.72164991487259311 1.643467086679683 -0.028218043712345115 0.18338107387057032 -0.42697692604316634 0.59621130256529631 0.36783980407835476 0.66901682672683982 0.028833562759021499 0.252433424054752 0.77176213416096473 0.40442212442188452 0.070603599337647635 0.2380076265518016 -1.7784185523552725
decision_type=2 2 2 2 2 2 2 2 2 2 2 2 2 2 2 2 2 2 2 2 2 2 2 2 2 2 2 2 2 2
left_child=5 -2 6 4 -4 27 -3 16 -7 10 -10 -6 -5 -14 15 -11 17 19 -19 -8 21 -21 24 -24 -16 26 -17 28 29 -1
right_child=1 2 3 12 11 8 7 -9 9 14 -12 -13 13 -15 22 25 -18 18 -20 20 -22 -23 23 -25 -26 -27 -28 -29 -30 -31
leaf_value=-0.21727482490241529 0.47017120846680238 0.16718249808658253 0.22207186967134476 0.087756086190541593 -0.1993474143133922 -0.23542233524115189 -0.066740863518537696 0.15699339489783012 0.26640672555991579 0.00016452896183934704 -0.039792590119220594 0.061447019129991537 0.14186698368617467 0.38271036368829237 -0.021088416667448151 -0.24213007713425094 -0.15998231946889843 0.012799275442957878 -0.22987680143366257 0.16042567766271532 0.23402593433856966 -0.084245978742837901 -0.063924276828765877 0.12214740686344379 -0.17169158273824939 -0.28598275116898797 -0.040740469550447807 -0.10139927261954416 -0.24999126951609341 -0.087567262137653659
leaf_weight=32 21 33 24 30 22 23 37 31 21 29 27 24 21 27 36 23 28 30 24 20 22 20 21 33 27 22 21 23 21 27
leaf_count=32 21 33 24 30 22 23 37 31 21 29 27 24 21 27 36 23 28 30 24 20 22 20 21 33 27 22 21 23 21 27
internal_value=0 0.080221 0.0593839 0.12408 0.0345544 -0.0860401 0.020302 -0.00256142 -0.0576409 -0.041914 0.0941696 -0.0632808 0.204424 0.277341 -0.0727254 -0.133804 -0.0298885 -0.00608047 -0.0950568 0.042452 0.107616 0.0380898 -0.0231316 0.0497862 -0.0856326 -0.192669 -0.146012 -0.164069 -0.182087 -0.157917
internal_weight=0 414 393 148 70 386 245 212 283 260 48 46 78 48 212 95 181 153 54 99 62 40 117 54 63 66 44 103 80 59
internal_count=800 414 393 148 70 386 245 212 283 260 48 46 78 48 212 95 181 153 54 99 62 40 117 54 63 66 44 103 80 59
is_linear=0
shrinkage=0.05


Tree=18
num_leaves=31
num_cat=0
split_feature=0 4 3 8 10 1 0 8 9 7 0 4 3 9 0 9 9 12 3 10 9 1 8 9 2 9 10 3 9 7
split_gain=1993.36 1214.37 364.806 571.05 465.303 377.209 914.288 617.446 332.518 312.242 311.275 297.443 428.808 515.856 281.034 258.669 258.085 232.984 544.809 229.16 267.331 218.467 214.317 169.409 165.35 117.855 102.213 78.6802 73.2956 71.072
threshold=0.18950749376855916 -0.94072580018550123 0.96355279824888229 0.96752357184389948 0.13102774030931438 0.83667822292424088 0.71933373695574476 -0.47383075036389161 0.29070393986659498 -0.64270938215542328 -1.2485923091680868 -0.93785401891735443 -0.55072818528252154 0.249884622007781 0.45442061536215189 0.71944146497056882 -0.78724571014454758 1.0000000180025095e-35 1.0375103554421132 -0.53444591632095306 -0.42324801824824038 0.87274271668161629 -0.33942793575287583 -0.85717550501574091 0.3945380330190999 -0.64429728508684347 -0.42697692604316634 0.16037372713039397 0.82589853327987417 0.070603599337647635
decision_type=2 2 2 2 2 2 2 2 2 2 2 2 2 2 2 2 2 2 2 2 2 2 2 2 2 2 2 2 2 2
left_child=10 -2 3 5 9 6 14 -8 25 -4 28 -12 13 -13 15 22 -16 18 19 27 23 -5 -3 -21 -22 -7 -18 -14 29 -1
right_child=1 2 4 21 -6 8 7 -9 -10 -11 11 12 17 -15 16 -17 26 -19 -20 20 24 -23 -24 -25 -26 -27 -28 -29 -30 -31
leaf_value=-0.19645933971041815 0.44666263716561461 -0.23320806889698426 0.22388508206322077 0.059185838699340826 0.33615183544655647 -0.10546298097996486 0.44627879559993744 0.058095523998850873 0.04614311841626962 -0.021330476826166407 -0.2236512197100598 0.29309899225831032 -0.22366886239212294 -0.047587829709053044 0.17177298180437808 0.04636482396002474 -0.10405953411012887 -0.20362901047424034 0.16522652366413521 -0.039237613466102633 -0.018282852742982948 0.2725260881582896 -0.044107148772285831 0.16655889207031579 -0.20787602044318035 -0.27505699172616005 0.055794372446835043 -0.10812355185968472 -0.078252116670565947 -0.09478258176949686
leaf_weight=68 21 29 21 20 24 21 20 21 24 34 23 20 26 25 29 29 20 27 26 20 23 30 31 20 23 20 20 34 28 23
leaf_count=68 21 29 21 20 24 21 20 21 24 34 23 20 26 25 29 29 20 27 26 20 23 30 31 20 23 20 20 34 28 23
internal_value=0 0.0762099 0.0564147 0.0322516 0.152456 0.00290717 0.0370649 0.247453 -0.101668 0.0722973 -0.0817381 -0.0517626 -0.03556 0.103829 -0.0175295 -0.0762447 0.0582045 -0.06708 -0.0456449 -0.0831974 -0.0308748 0.18719 -0.135506 0.0636606 -0.113079 -0.188192 -0.0241326 -0.158193 -0.148994 -0.170761
internal_weight=0 414 393 314 79 264 199 41 65 55 386 267 244 45 158 89 69 199 172 146 86 50 60 40 46 41 40 60 119 91
internal_count=800 414 393 314 79 264 199 41 65 55 386 267 244 45 158 89 69 199 172 146 86 50 60 40 46 41 40 60 119 91
is_linear=0
shrinkage=0.05


Tree=19
num_leaves=30
num_cat=0
split_feature=0 4 8 9 15 0 8 8 10 6 5 5 8 4 0 8 5 3 2 2 10 46 3 8 7 3 3 7 0
split_gain=1811.63 684.248 358.51 316.633 453.003 715.528 916.573 377.596 448.33 320.482 293.172 284.909 249.859 249.139 226.616 222.324 300.124 210.453 232.91 182.087 122.73 140.685 179.158 110.296 71.7232 56.7877 42.2186 79.7426 101.819
threshold=1.0000000180025095e-35 -0.94072580018550123 1.6835661531336223 -1.0828759831721764 1.0000000180025095e-35 0.71933373695574476 -0.11696810467257372 -0.66848310255915611 -0.42697692604316634 -0.21098577469235394 -0.040479503622413558 -0.26119782113921802 -0.98826910973709048 0.84757342093615906 -1.3999712357929972 0.82385159760453808 -0.53662409769864927 0.52960683141759957 0.98676044215596781 0.98676044215596781 -0.53317632489861222 1.0000000180025095e-35 -0.43757312277687815 -0.30466858714657857 -0.45999065614698342 0.16037372713039397 0.34397336286258989 -0.019074302997783066 -1.8541080156677274
decision_type=2 2 2 2 2 2 2 2 2 2 2 2 2 2 2 2 2 2 2 2 2 2 2 2 2 2 2 2 2
left_child=14 -2 3 11 5 7 -7 12 10 -10 13 -3 24 -9 26 19 -17 -8 -19 20 25 22 -22 -24 -5 -16 27 28 -1
right_child=1 2 -4 4 -6 6 17 8 9 -11 -12 -13 -14 -15 15 16 -18 18 -20 -21 21 -23 23 -25 -26 -27 -28 -29 -30
leaf_value=-0.23858978343009951 0.33140512031057612 -0.17842709779225549 0.23929621726274491 -0.062519596777856346 -0.15585066928811697 0.42977576862488481 -0.029738778124252959 -0.014830866921693088 0.25798984517653784 0.04627626162925453 -0.10965844029799486 0.041353597516814868 -0.19063860917532888 0.21012765266001227 -0.18399209618568421 0.18395946731790902 -0.064473532002058728 0.27935716867446903 0.043601596897298645 -0.20752686117417538 0.10477480358547636 -0.11908055401096743 -0.12696770154512846 0.017316932060445347 0.069782661682083497 -0.077420354247093204 -0.21159738515104567 -0.048106190562248234 -0.1072405029916101
leaf_weight=25 23 29 24 20 23 28 24 32 39 33 39 30 27 20 25 20 31 20 22 26 27 36 26 27 21 25 21 21 36
leaf_count=25 23 29 24 20 23 28 24 32 39 33 39 30 27 20 25 20 31 20 22 26 27 36 26 27 21 25 21 21 36
internal_value=0 0.0656856 0.0515057 0.040432 0.0585908 0.0737667 0.190068 0.0264407 0.0677301 0.160954 -0.00602982 -0.0666742 -0.0725323 0.0716916 -0.0861886 -0.059844 0.0329512 0.0883735 0.155866 -0.0844927 -0.0652223 -0.0369964 -5.85422e-05 -0.0534642 0.00524497 -0.130706 -0.148342 -0.132142 -0.161072
internal_weight=0 454 431 407 348 325 94 231 163 72 91 59 68 52 346 243 51 66 42 192 166 116 80 53 41 50 103 82 61
internal_count=800 454 431 407 348 325 94 231 163 72 91 59 68 52 346 243 51 66 42 192 166 116 80 53 41 50 103 82 61
is_linear=0
shrinkage=0.05


Tree=20
num_leaves=30
num_cat=0
split_feature=0 1 0 8 2 3 9 1 5 0 7 0 23 1 7 8 0 7 8 1 9 5 23 3 4 9 3 7 0
split_gain=1635 621.748 499.617 348.447 415.366 485.59 333.751 312.146 301.094 380.307 310.486 552.711 361.302 272.805 256.608 211.508 204.521 205.077 137.673 134.483 181.073 188.075 116.03 99.5244 81.632 76.0832 38.1023 71.9677 93.0976
threshold=1.0000000180025095e-35 -1.1576882818586431 0.45442061536215189 1.6835661531336223 1.1127081943253472 0.98610985319281774 0.12399662456374713 -0.70327566051570789 -0.90392201582276743 0.98424685854933747 -0.48241013173084107 0.45442061536215189 1.0000000180025095e-35 0.82225242542129096 -0.34042011969974256 0.29087491897464685 -1.3999712357929972 -0.73649752168122784 0.12634733557150704 -1.2334237187491324 -0.71636412299595975 -0.53662409769864927 1.0000000180025095e-35 0.42865476584883921 -0.72657296847513031 0.36180102715346102 0.34397336286258989 -0.019074302997783066 -1.7784185523552725
decision_type=2 2 2 2 2 2 2 2 2 2 2 2 2 2 2 2 2 2 2 2 2 2 2 2 2 2 2 2 2
left_child=16 2 -2 4 5 7 -6 -3 14 10 11 25 15 -7 -9 -12 26 -18 -14 -19 21 -21 24 -24 -22 -10 27 28 -1
right_child=1 3 -4 -5 6 13 -8 8 9 -11 12 -13 18 -15 -16 -17 17 19 -20 20 22 -23 23 -25 -26 -27 -28 -29 -30
leaf_value=-0.20991647911794262 0.094282333497647891 -0.13994553968310358 0.42399878382682799 0.22733140140771868 -0.21695218449458481 0.091632401036179589 0.027175644918211866 0.059936518052025982 -0.21836195561018856 0.23330788516229198 0.11290180147267306 0.11698486962739159 -0.10612181714270263 0.34412646472454073 -0.16546022679124561 0.31289379715919496 0.073066424109317643 0.035957900464534759 0.075134627724235709 0.11115863841027021 -0.027404650969383045 -0.080074722019748565 -0.21783420856182395 -0.080647028419189165 -0.13107963663500707 -0.083616972240852197 -0.20101751486460367 -0.045700880920603162 -0.085960316711238452
leaf_weight=33 27 25 20 24 28 23 28 23 22 31 39 34 20 20 28 20 27 25 22 20 39 36 39 20 37 20 21 21 28
leaf_count=33 27 25 20 24 28 23 28 23 22 31 39 34 20 20 28 20 27 25 22 20 39 36 39 20 37 20 21 21 28
internal_value=0 0.0624013 0.234587 0.0425174 0.0309364 0.0524844 -0.0948883 0.0287758 0.0450616 0.0717562 0.0434619 -0.0328792 0.100907 0.209072 -0.0638107 0.180696 -0.0818792 -0.0568518 -0.011178 -0.0730915 -0.087365 -0.0117771 -0.11872 -0.17133 -0.077878 -0.154198 -0.140924 -0.125535 -0.153019
internal_weight=0 454 47 407 383 327 56 284 259 208 177 76 101 43 51 59 346 243 42 216 191 56 135 59 76 42 103 82 61
internal_count=800 454 47 407 383 327 56 284 259 208 177 76 101 43 51 59 346 243 42 216 191 56 135 59 76 42 103 82 61
is_linear=0
shrinkage=0.05


Tree=21
num_leaves=29
num_cat=0
split_feature=0 4 8 9 9 4 10 1 10 5 9 4 6 2 8 4 29 3 4 4 7 6 7 2 9 1 6 9
split_gain=1475.59 595.656 293.502 287.236 436.462 578.076 268.516 415.708 294.732 244.689 237.916 312.169 285.539 358.377 468.119 198.964 189.172 154.351 103.272 218.6 137.369 156.647 140.417 208.24 145.8 126.437 80.5361 73.2336
threshold=1.0000000180025095e-35 -0.94072580018550123 1.6835661531336223 -1.0828759831721764 -0.75086210346528748 -0.0057558701702997636 -0.41639699752365916 0.5661945197439221 -0.71708241329478761 -0.26119782113921802 0.03959240373821845 -0.22729328228447646 -0.2067980015706645 -0.42814196519365361 0.19818332269118802 0.64654873216588771 1.0000000180025095e-35 1.2388598049006847 0.49065203475220748 -0.24370346095960058 -0.45999065614698342 -0.21040978438538979 -0.34789327822769517 -0.37990665585218913 0.0064412991331276757 0.2380076265518016 -0.21098577469235394 0.11149761654362629
decision_type=2 2 2 2 2 2 2 2 2 2 2 2 2 2 2 2 2 2 2 2 2 2 2 2 2 2 2 2
left_child=16 -2 3 9 5 -5 7 15 -9 -3 11 -8 13 -12 -15 -6 17 18 19 20 21 26 -22 24 -24 -20 -1 -25
right_child=1 2 -4 4 6 -7 10 8 -10 -11 12 -13 -14 14 -16 -17 -18 -19 25 -21 22 -23 23 27 -26 -27 -28 -29
leaf_value=-0.054584188938140869 0.30720303923539494 -0.16954652848171778 0.21596482247114182 0.30821523696184161 -0.19681124371048567 0.0091096093257268269 -0.10838823544012535 0.1899191360473633 -0.064167954390203327 0.034131334979707995 0.33633439006283883 0.11521195162225653 -0.033039931899734906 -0.047763119589897901 0.21563998090254294 -0.0010717839002609252 0.067657543860730682 0.043919191474006296 -0.089951316718208163 0.029248502340755968 -0.23951692420702717 0.021963210835268625 -0.11692915263729881 -0.11534645855426789 0.071703084036707873 -0.22726367304722472 -0.18740451364290148 -0.24020108630259834
leaf_weight=25 23 29 24 35 37 30 37 25 21 30 20 27 28 31 37 20 21 21 38 38 26 38 21 23 20 30 21 24
leaf_count=25 23 29 24 35 37 30 37 25 21 30 20 27 28 31 37 20 21 21 38 38 26 38 21 23 20 30 21 24
internal_value=0 0.0592813 0.0460511 0.0360316 0.0533269 0.170166 0.026491 -0.0378932 0.0739229 -0.0659815 0.0633331 -0.0140569 0.106031 0.150281 0.0955592 -0.128131 -0.0777852 -0.0871831 -0.0962395 -0.0805964 -0.101678 -0.0531607 -0.137427 -0.107264 -0.0249134 -0.15053 -0.11522 -0.179102
internal_weight=0 454 431 407 348 65 283 103 46 59 180 64 116 88 68 57 346 325 304 236 198 84 114 88 41 68 46 47
internal_count=800 454 431 407 348 65 283 103 46 59 180 64 116 88 68 57 346 325 304 236 198 84 114 88 41 68 46 47
is_linear=0
shrinkage=0.05


Tree=22
num_leaves=30
num_cat=0
split_feature=0 4 3 2 0 5 10 2 5 5 5 9 4 5 9 9 3 5 1 5 4 4 0 10 5 10 4 3 1
split_gain=1342.65 916.95 272.376 397.851 390.09 476.502 386.724 364.046 342.092 243.831 397.833 249.496 236.233 217.307 529.751 419.66 315.148 228.587 181.709 376.685 164.534 218.535 233.168 203.97 149.074 106.833 104.152 51.5717 73.1205
threshold=0.18950749376855916 -0.94072580018550123 0.96355279824888229 1.0725121032074603 0.71933373695574476 0.39529768737230303 0.13102774030931438 0.60891718564783071 -0.83657463175994773 -0.74791000848396627 -0.52907817231345933 0.59621130256529631 0.2568069886316876 -0.55926187385421888 -0.59162545962274204 -0.89544473790493317 0.61798611226351052 -0.38193262730225636 0.0071948665045959695 -0.046138947661305989 -0.93785401891735443 -0.71016278980000613 -1.0215239192307217 0.16281369282864833 0.34624917236856861 -0.10920204027798296 0.49065203475220748 -0.39061007395917657 -0.086572817264580507
decision_type=2 2 2 2 2 2 2 2 2 2 2 2 2 2 2 2 2 2 2 2 2 2 2 2 2 2 2 2 2
left_child=13 -2 3 4 7 12 8 9 -4 -3 -11 18 -6 14 15 -1 27 -15 -12 -20 -19 22 -22 -24 25 -23 -26 -16 -29
right_child=1 2 6 -5 5 -7 -8 -9 -10 10 11 -13 -14 17 16 -17 -18 20 19 -21 21 24 23 -25 26 -27 -28 28 -30
leaf_value=-0.05098082076758146 0.38445222931248801 -0.1271773711228982 0.22021508142352106 -0.15902904045802577 -0.047202048202355705 0.35289956003427508 0.29580019821102421 0.16657694633468056 -0.039008197252239502 0.20453842696936234 -0.15651841555886412 0.090574142461021745 0.18547116659581664 -0.25883912533521652 -0.075663220100104817 0.25366573263532838 0.040234258856092185 -0.19288866530204643 -0.18781719148159026 0.079076072535453706 -0.12652162622946958 -0.11670016775735551 0.15324340672404679 -0.039364399015903474 0.011781541078255096 -0.2608285759389401 -0.13653424993157387 -0.22426004303353175 -0.102449679243463
leaf_weight=20 21 39 20 27 24 20 24 32 35 23 34 36 20 20 20 26 35 29 20 39 26 36 27 28 29 20 20 28 22
leaf_count=20 21 39 20 27 24 20 24 32 35 23 34 36 20 20 20 26 35 29 20 39 26 36 27 28 29 20 20 28 22
internal_value=0 0.0625461 0.045345 0.0244662 0.0417288 0.15054 0.128332 0.0105004 0.0552548 -0.0156485 0.0129674 -0.0211886 0.0585585 -0.0670831 -0.0202818 0.121211 -0.0822689 -0.0971555 -0.0644516 -0.0113962 -0.0821152 -0.064844 -0.00313819 0.0551885 -0.112446 -0.168175 -0.0487555 -0.143521 -0.170663
internal_weight=0 414 393 314 287 64 79 223 55 191 152 129 44 386 151 46 105 235 93 59 215 186 81 55 105 56 49 70 50
internal_count=800 414 393 314 287 64 79 223 55 191 152 129 44 386 151 46 105 235 93 59 215 186 81 55 105 56 49 70 50
is_linear=0
shrinkage=0.05


end of trees

feature_importances:
Column_0=72
Column_5=71
Column_8=69
Column_4=68
Column_3=65
Column_10=65
Column_1=62
Column_9=59
Column_7=56
Column_2=29
Column_6=19
Column_23=18
Column_24=6
Column_31=5
Column_44=5
Column_60=4
Column_46=3
Column_12=2
Column_15=1
Column_28=1
Column_29=1
Column_38=1

parameters:
[boosting: gbdt]
[objective: regression]
[metric: rmse]
[tree_learner: serial]
[device_type: cpu]
[data_sample_strategy: bagging]
[data: ]
[valid: ]
[num_iterations: 1000]
[learning_rate: 0.05]
[num_leaves: 31]
[num_threads: 0]
[seed: 0]
[deterministic: 0]
[force_col_wise: 0]
[force_row_wise: 0]
[histogram_pool_size: -1]
[max_depth: -1]
[min_data_in_leaf: 20]
[min_sum_hessian_in_leaf: 0.001]
[bagging_fraction: 1]
[pos_bagging_fraction: 1]
[neg_bagging_fraction: 1]
[bagging_freq: 0]
[bagging_seed: 3]
[feature_fraction: 0.9]
[feature_fraction_bynode: 1]
[feature_fraction_seed: 2]
[extra_trees: 0]
[extra_seed: 6]
[early_stopping_round: 50]
[early_stopping_min_delta: 0]
[first_metric_only: 0]
[max_delta_step: 0]
[lambda_l1: 0]
[lambda_l2: 0]
[linear_lambda: 0]
[min_gain_to_split: 0]
[drop_rate: 0.1]
[max_drop: 50]
[skip_drop: 0.5]
[xgboost_dart_mode: 0]
[uniform_drop: 0]
[drop_seed: 4]
[top_rate: 0.2]
[other_rate: 0.1]
[min_data_per_group: 100]
[max_cat_threshold: 32]
[cat_l2: 10]
[cat_smooth: 10]
[max_cat_to_onehot: 4]
[top_k: 20]
[monotone_constraints: ]
[monotone_constraints_method: basic]
[monotone_penalty: 0]
[feature_contri: ]
[forcedsplits_filename: ]
[refit_decay_rate: 0.9]
[cegb_tradeoff: 1]
[cegb_penalty_split: 0]
[cegb_penalty_feature_lazy: ]
[cegb_penalty_feature_coupled: ]
[path_smooth: 0]
[interaction_constraints: ]
[verbosity: 1]
[saved_feature_importance_type: 0]
[use_quantized_grad: 0]
[num_grad_quant_bins: 4]
[quant_train_renew_leaf: 0]
[stochastic_rounding: 1]
[linear_tree: 0]
[max_bin: 255]
[max_bin_by_feature: ]
[min_data_in_bin: 3]
[bin_construct_sample_cnt: 200000]
[data_random_seed: 1]
[is_enable_sparse: 1]
[enable_bundle: 1]
[use_missing: 1]
[zero_as_missing: 0]
[feature_pre_filter: 1]
[pre_partition: 0]
[two_round: 0]
[header: 0]
[label_column: ]
[weight_column: ]
[group_column: ]
[ignore_column: ]
[categorical_feature: ]
[forcedbins_filename: ]
[precise_float_parser: 0]
[parser_config_file: ]
[objective_seed: 5]
[num_class: 1]
[is_unbalance: 0]
[scale_pos_weight: 1]
[sigmoid: 1]
[boost_from_average: 1]
[reg_sqrt: 0]
[alpha: 0.9]
[fair_c: 1]
[poisson_max_delta_step: 0.7]
[tweedie_variance_power: 1.5]
[lambdarank_truncation_level: 30]
[lambdarank_norm: 1]
[label_gain: ]
[lambdarank_position_bias_regularization: 0]
[eval_at: ]
[multi_error_top_k: 1]
[auc_mu_weights: ]
[num_machines: 1]
[local_listen_port: 12400]
[time_out: 120]
[machine_list_filename: ]
[machines: ]
[gpu_platform_id: -1]
[gpu_device_id: -1]
[gpu_use_dp: 0]
[num_gpu: 1]

end of parameters

pandas_categorical:null
